solver_type L2R_L2LOSS_SVC
nr_class 4
label 0 1 2 3
nr_feature 53
bias -1
w
-0.8090356105786619 0.4705806479389102 -0.1378339391271827 0.07873788281869989 
0.1449288421316451 0.06107436567029191 -0.05699938686831638 -0.2818443022531165 
-0.866849771602843 -0.2131013885083226 2.129305317187005 0.8642493648155771 
0.4448241864349601 -3.149470749326152 -0.06360446422498572 -0.5384102682228831 
0.6572339981096005 -0.8542080279337912 -0.6407503887926216 -0.677686846679157 
-0.3936424055772411 0.06285358288910568 0.4913774152857519 0.2114742777081013 
-0.0914123014605118 0.1228658923727382 -0.05531208251171166 -0.1865881087905897 
-0.8528138012809764 5.280524121856868 0.5207050387735849 -0.1956960545361896 
1.266359714896997 -4.627677582741335 0.6427128196346223 0.04494944141105667 
-0.1980872277394291 0.0601739480589928 -0.09926552043267334 0.1407591658697375 
0.2597498187176345 -0.07663192709754807 -0.3407666785131349 -0.1397608921954658 
-0.1618302387536961 0.1766152125936067 -0.5728721623032 0.3644472691794259 
0.7057199389109552 -0.8340619163929626 0.283888688465339 -1.12119331675104 
-0.9165091153891273 0.5801474877038113 1.434517411168541 -0.1618047095988862 
-0.8939126586142161 -0.7354692370920664 -0.2368772353916218 1.887781621449421 
0 0 0 0 
0 0 0 0 
0 0 0 0 
0 0 0 0 
0 0 0 0 
0 0 0 0 
0 0 0 0 
0 0 0 0 
0 0 0 0 
0 0 0 0 
0 0 0 0 
0 0 0 0 
0 0 0 0 
0 0 0 0 
0 0 0 0 
0 0 0 0 
0 0 0 0 
0 0 0 0 
0 0 0 0 
0 0 0 0 
0 0 0 0 
0 0 0 0 
0.9814407323090421 -0.4646150652189766 -0.4598644015446633 -0.6298429347083482 
0.5420486509321131 0.1540987882786895 -0.6243812624320881 -0.4372355112492857 
-2.613233186498948 -0.776588899594676 7.090995142450205 0.3816390778205475 
0.5517131339618989 -0.5920048748803445 -0.1436463930698776 -0.2088603197922954 
2.043468763302792 -0.6730270465483784 -0.4215218100051478 -2.289261434582295 
0.5644339894582734 -0.4484055813960587 -4.39450020861891 -0.5306485345813545 
0 0 0 0 
-0.02080415711217507 0.538727102043382 3.738485804275115 -0.05530320885679262 
0 0 0 0 
0 0 0 0 
0.01498468017637412 0.3126800039015501 -0.4400996370323579 -0.2949198077533273 
0 0 0 0 
-0.3388688139259343 -0.02482820739335341 -0.9354420308245421 0.3344881061737348 
0.3280767896867556 0.3758783588370557 -2.089735290705792 -0.5539453833362176 
0.01498468017637412 0.3126800039015501 -0.4400996370323579 -0.2949198077533273 
-0.006691126449799384 -1.166931871269538 -0.8553713801912364 -0.1558363848546143 
