solver_type L2R_L2LOSS_SVC_DUAL
nr_class 4
label 0 1 2 3
nr_feature 54
bias -1
w
0.2054263906372265 -0.3149336551997277 0.0723521999840907 -0.1043533112637029 
-0.2588912246752176 0.08832369129181292 0.08251234948150692 0.1832899679297944 
-0.5496979644363992 -0.02181952290347077 0.6942853025098161 0.1534864901970202 
0.5125602226327821 -0.1031241631800772 -0.5141270343895252 -0.1019111522939531 
0.1868024274627724 -0.1486641905840062 -0.9392420885214929 -0.8024085686854112 
0.01631336146845213 -0.1601912441663832 0.01725325613439427 0.04090501177814448 
-0.1333183038226398 0.3498523793640655 -0.1986516043225509 -0.3786395022231091 
-0.4153389621750301 0.3585574611475175 -0.04695623339131821 0.004723351762163616 
-0.14867156844451 0.3119759580706247 -0.2400583669735591 -0.1773710694609958 
-0.230254883878353 0.2667706787576578 -0.05022446565677226 -0.03159166653094077 
-0.0708066290338413 -0.1210218873092854 0.101020097423628 0.1969813177343222 
-0.08518225535717754 -0.1094557549279401 0.08225530760606808 0.08038405335087942 
-0.01628402011360612 -0.1566809325540422 -0.07463506966278022 0.09502875710648039 
-0.7478815976993333 0.8062710021416014 -0.02819803598147839 -0.002134946729356874 
0.1155656255940176 -0.04191930637119412 -0.07975831382209925 0 
0 0 0 0 
0 0 0 0 
0 0 0 0 
0 0 0 0 
0 0 0 0 
0 0 0 0 
0 0 0 0 
0 0 0 0 
0 0 0 0 
0 0 0 0 
0 0 0 0 
0 0 0 0 
0 0 0 0 
0 0 0 0 
0 0 0 0 
0 0 0 0 
0 0 0 0 
0 0 0 0 
0 0 0 0 
0 0 0 0 
0 0 0 0 
0 0 0 0 
0.154944262374372 -0.160593186926303 -0.05027232924941091 -0.0826219155015222 
0 0 0 0 
-1.427529734894655 -0.9279111867253339 1.909411835321694 0.4859584127802785 
0.107386450907025 -0.2483331421185215 0.0580176609765509 -0.02580930098105007 
0.475465807082627 -0.4847613919793002 -0.04029632830917586 -0.1391550323059351 
0.5658198747240739 -0.2335645433872109 -0.4244759435083819 -0.6043057555793137 
-0.2255983648649522 0.3956917461040509 -0.1188137427307671 -0.106333639426333 
-0.7627177646022341 -0.05889854679527501 0.463965239113204 0.5887743537677153 
0 0 0 0 
0 0 0 0 
-0.08322401337031154 0.3325263736070899 -0.06515208165792155 -0.3230841140431435 
0 0 0 0 
0 0 0 0 
-0.2829690920399171 0.4205833691249138 -0.1082727640548986 -0.1298278149472075 
-0.4041557642794545 0.2976015425159946 -0.1374283074741743 0.07976414145244401 
0.7311337596116216 -0.4826754109054113 -0.009791112124650003 -0.5172879100611422 
1.703279475193363 -0.914551506704699 -0.5611700448948392 -0.1773710694609955 
